<?xml version="1.0"?>
<opencv_storage>
<cascade>
  <stageType>BOOST</stageType>
  <featureType>HAAR</featureType>
  <height>46</height>
  <width>38</width>
  <stageParams>
    <boostType>GAB</boostType>
    <minHitRate>9.9500000476837158e-01</minHitRate>
    <maxFalseAlarm>5.0000000000000000e-01</maxFalseAlarm>
    <weightTrimRate>9.4999998807907104e-01</weightTrimRate>
    <maxDepth>1</maxDepth>
    <maxWeakCount>100</maxWeakCount></stageParams>
  <featureParams>
    <maxCatCount>0</maxCatCount>
    <featSize>1</featSize>
    <mode>BASIC</mode></featureParams>
  <stageNum>4</stageNum>
  <stages>
    <!-- stage 0 -->
    <_>
      <maxWeakCount>3</maxWeakCount>
      <stageThreshold>-1.0503077507019043e+00</stageThreshold>
      <weakClassifiers>
        <_>
          <internalNodes>
            0 -1 7 9.7090303897857666e-02</internalNodes>
          <leafValues>
            -9.3596059083938599e-01 5.8333331346511841e-01</leafValues></_>
        <_>
          <internalNodes>
            0 -1 8 6.0402736999094486e-03</internalNodes>
          <leafValues>
            -7.3858922719955444e-01 7.5235497951507568e-01</leafValues></_>
        <_>
          <internalNodes>
            0 -1 10 -1.3403994962573051e-03</internalNodes>
          <leafValues>
            6.2424206733703613e-01 -6.5179622173309326e-01</leafValues></_></weakClassifiers></_>
    <!-- stage 1 -->
    <_>
      <maxWeakCount>4</maxWeakCount>
      <stageThreshold>-1.4212989807128906e+00</stageThreshold>
      <weakClassifiers>
        <_>
          <internalNodes>
            0 -1 1 1.0147559642791748e-01</internalNodes>
          <leafValues>
            -8.4140968322753906e-01 1.</leafValues></_>
        <_>
          <internalNodes>
            0 -1 3 -1.8646903336048126e-03</internalNodes>
          <leafValues>
            8.8446158170700073e-01 -6.8623089790344238e-01</leafValues></_>
        <_>
          <internalNodes>
            0 -1 6 -3.6955066025257111e-03</internalNodes>
          <leafValues>
            8.9930766820907593e-01 -5.3443706035614014e-01</leafValues></_>
        <_>
          <internalNodes>
            0 -1 9 -5.3953314200043678e-03</internalNodes>
          <leafValues>
            6.4077877998352051e-01 -8.5761177539825439e-01</leafValues></_></weakClassifiers></_>
    <!-- stage 2 -->
    <_>
      <maxWeakCount>3</maxWeakCount>
      <stageThreshold>-8.2230889797210693e-01</stageThreshold>
      <weakClassifiers>
        <_>
          <internalNodes>
            0 -1 5 2.0381049253046513e-03</internalNodes>
          <leafValues>
            -9.0432798862457275e-01 1.</leafValues></_>
        <_>
          <internalNodes>
            0 -1 4 7.4631760071497411e-05</internalNodes>
          <leafValues>
            8.0710411071777344e-01 -8.6356347799301147e-01</leafValues></_>
        <_>
          <internalNodes>
            0 -1 2 -4.4006352254655212e-05</internalNodes>
          <leafValues>
            -7.2508502006530762e-01 1.</leafValues></_></weakClassifiers></_>
    <!-- stage 3 -->
    <_>
      <maxWeakCount>1</maxWeakCount>
      <stageThreshold>1.</stageThreshold>
      <weakClassifiers>
        <_>
          <internalNodes>
            0 -1 0 8.6263105913531035e-05</internalNodes>
          <leafValues>
            1. -1.</leafValues></_></weakClassifiers></_></stages>
  <features>
    <_>
      <rects>
        <_>
          0 0 1 3 -1.</_>
        <_>
          0 1 1 1 3.</_></rects>
      <tilted>0</tilted></_>
    <_>
      <rects>
        <_>
          0 0 33 20 -1.</_>
        <_>
          11 0 11 20 3.</_></rects>
      <tilted>0</tilted></_>
    <_>
      <rects>
        <_>
          2 29 5 2 -1.</_>
        <_>
          2 30 5 1 2.</_></rects>
      <tilted>0</tilted></_>
    <_>
      <rects>
        <_>
          6 38 17 2 -1.</_>
        <_>
          6 39 17 1 2.</_></rects>
      <tilted>0</tilted></_>
    <_>
      <rects>
        <_>
          9 6 1 4 -1.</_>
        <_>
          9 8 1 2 2.</_></rects>
      <tilted>0</tilted></_>
    <_>
      <rects>
        <_>
          10 13 10 9 -1.</_>
        <_>
          10 16 10 3 3.</_></rects>
      <tilted>0</tilted></_>
    <_>
      <rects>
        <_>
          16 33 2 12 -1.</_>
        <_>
          16 37 2 4 3.</_></rects>
      <tilted>0</tilted></_>
    <_>
      <rects>
        <_>
          20 4 9 39 -1.</_>
        <_>
          20 17 9 13 3.</_></rects>
      <tilted>0</tilted></_>
    <_>
      <rects>
        <_>
          21 14 6 6 -1.</_>
        <_>
          21 17 6 3 2.</_></rects>
      <tilted>0</tilted></_>
    <_>
      <rects>
        <_>
          23 17 14 4 -1.</_>
        <_>
          30 17 7 4 2.</_></rects>
      <tilted>0</tilted></_>
    <_>
      <rects>
        <_>
          28 29 3 6 -1.</_>
        <_>
          28 32 3 3 2.</_></rects>
      <tilted>0</tilted></_></features></cascade>
</opencv_storage>
